digraph Tree {
node [shape=box] ;
0 [label="num_shells <= 1.5\ngini = 0.0\nsamples = 125973\nvalue = [125964, 9]\nclass = Benign"] ;
1 [label="num_file_creations <= 0.5\ngini = 0.0\nsamples = 125968\nvalue = [125961, 7]\nclass = Benign"] ;
0 -> 1 [labeldistance=2.5, labelangle=45, headlabel="True"] ;
2 [label="root_shell <= 0.5\ngini = 0.0\nsamples = 125686\nvalue = [125681, 5]\nclass = Benign"] ;
1 -> 2 ;
3 [label="dst_houst_count <= 6.5\ngini = 0.0\nsamples = 125547\nvalue = [125543, 4]\nclass = Benign"] ;
2 -> 3 ;
4 [label="diff_srv_rat <= 0.585\ngini = 0.001\nsamples = 9712\nvalue = [9708, 4]\nclass = Benign"] ;
3 -> 4 ;
5 [label="gini = 0.0\nsamples = 9671\nvalue = [9669, 2]\nclass = Benign"] ;
4 -> 5 ;
6 [label="gini = 0.093\nsamples = 41\nvalue = [39, 2]\nclass = Benign"] ;
4 -> 6 ;
7 [label="gini = 0.0\nsamples = 115835\nvalue = [115835, 0]\nclass = Benign"] ;
3 -> 7 ;
8 [label="same_srv_rate <= 0.875\ngini = 0.014\nsamples = 139\nvalue = [138, 1]\nclass = Benign"] ;
2 -> 8 ;
9 [label="dst_host_srv_count <= 6.0\ngini = 0.5\nsamples = 2\nvalue = [1, 1]\nclass = Benign"] ;
8 -> 9 ;
10 [label="gini = 0.0\nsamples = 1\nvalue = [0, 1]\nclass = Attack"] ;
9 -> 10 ;
11 [label="gini = 0.0\nsamples = 1\nvalue = [1, 0]\nclass = Benign"] ;
9 -> 11 ;
12 [label="gini = 0.0\nsamples = 137\nvalue = [137, 0]\nclass = Benign"] ;
8 -> 12 ;
13 [label="dst_host_diff_srv_rate <= 0.595\ngini = 0.014\nsamples = 282\nvalue = [280, 2]\nclass = Benign"] ;
1 -> 13 ;
14 [label="gini = 0.0\nsamples = 272\nvalue = [272, 0]\nclass = Benign"] ;
13 -> 14 ;
15 [label="src_bytes <= 307.5\ngini = 0.32\nsamples = 10\nvalue = [8, 2]\nclass = Benign"] ;
13 -> 15 ;
16 [label="gini = 0.0\nsamples = 2\nvalue = [0, 2]\nclass = Attack"] ;
15 -> 16 ;
17 [label="gini = 0.0\nsamples = 8\nvalue = [8, 0]\nclass = Benign"] ;
15 -> 17 ;
18 [label="dst_host_same_srv_rate <= 0.625\ngini = 0.48\nsamples = 5\nvalue = [3, 2]\nclass = Benign"] ;
0 -> 18 [labeldistance=2.5, labelangle=-45, headlabel="False"] ;
19 [label="gini = 0.0\nsamples = 2\nvalue = [2, 0]\nclass = Benign"] ;
18 -> 19 ;
20 [label="duration <= 150.5\ngini = 0.444\nsamples = 3\nvalue = [1, 2]\nclass = Attack"] ;
18 -> 20 ;
21 [label="gini = 0.0\nsamples = 2\nvalue = [0, 2]\nclass = Attack"] ;
20 -> 21 ;
22 [label="gini = 0.0\nsamples = 1\nvalue = [1, 0]\nclass = Benign"] ;
20 -> 22 ;
}
